/************************************************************************
 * MechSys - Open Library for Mechanical Systems                        *
 * Copyright (C) 2005 Dorival M. Pedroso, Raúl D. D. Farfan             *
 *                                                                      *
 * This program is free software: you can redistribute it and/or modify *
 * it under the terms of the GNU General Public License as published by *
 * the Free Software Foundation, either version 3 of the License, or    *
 * any later version.                                                   *
 *                                                                      *
 * This program is distributed in the hope that it will be useful,      *
 * but WITHOUT ANY WARRANTY; without even the implied warranty of       *
 * MERCHANTABILITY or FITNESS FOR A PARTICULAR PURPOSE. See the         *
 * GNU General Public License for more details.                         *
 *                                                                      *
 * You should have received a copy of the GNU General Public License    *
 * along with this program. If not, see <http://www.gnu.org/licenses/>  *
 ************************************************************************/

#ifndef MECHSYS_FEM_QUADRATURE_H
#define MECHSYS_FEM_QUADRATURE_H

namespace FEM
{

/** Auxiliar structure (integration point). */
struct IntegPoint
{
	double r; ///< xsi coordinate
	double s; ///< eta coordinate
	double t; ///< zeta coordinate
	double w; ///< weight (coeficient) W 
};

// Weights after Akin -- Rice University -- http://www.owlnet.rice.edu/~mech517/

// NumGP = 2  =>  precision = 3
const double GAUSSP_2[] = { -0.577350269189625764509149e+00,
                             0.577350269189625764509149e+00 };
const double WEIGHT_2[] = {  1.000000000000000000000000e+00,
                             1.000000000000000000000000e+00 };

// NumGP = 3  =>  precision = 5
const double GAUSSP_3[] = { -0.774596669241483377035835e+00,
                             0.000000000000000000000000e+00,
                             0.774596669241483377035835e+00 };
const double WEIGHT_3[] = {  0.555555555555555555555556e+00,
                             0.888888888888888888888889e+00,
                             0.555555555555555555555556e+00 };

// NumGP = 4  =>  precision = 7
const double GAUSSP_4[] = { -0.861136311594052575223946e+00,
                            -0.339981043584856264802666e+00,
                             0.339981043584856264802666e+00,
                             0.861136311594052575223946e+00 };
const double WEIGHT_4[] = {  0.34785484513745385737306e+00,
                             0.65214515486254614262694e+00,
                             0.65214515486254614262694e+00,
                             0.34785484513745385737306e+00 };

// NumGP = 5  =>  precision = 9
const double GAUSSP_5[] = { -0.906179845938663992797627e+00,
                            -0.538469310105683091036314e+00,
                             0.000000000000000000000000e+00,
                             0.538469310105683091036314e+00,
                             0.906179845938663992797627e+00 };
const double WEIGHT_5[] = {  0.23692688505618908751426e+00,
                             0.47862867049936646804129e+00,
                             0.56888888888888888888889e+00,
                             0.47862867049936646804129e+00,
                             0.23692688505618908751426e+00 };

// NumGP = 6  =>  precision = 11
const double GAUSSP_6[] = { -0.932469514203152027812302e+00,
                            -0.661209386466264513661400e+00,
                            -0.238619186083196908630502e+00,
                             0.238619186083196908630502e+00,
                             0.661209386466264513661400e+00,
                             0.932469514203152027812302e+00 };
const double WEIGHT_6[] = {  0.17132449237917034504030e+00,
                             0.36076157304813860756983e+00,
                             0.46791393457269104738987e+00,
                             0.46791393457269104738987e+00,
                             0.36076157304813860756983e+00,
                             0.17132449237917034504030e+00 };

// NumGP = 7  =>  precision = 13
const double GAUSSP_7[] = { -0.949107912342758524526190e+00,
                            -0.741531185599394439863865e+00,
                            -0.405845151377397166906607e+00,
                             0.000000000000000000000000e+00,
                             0.405845151377397166906607e+00,
                             0.741531185599394439863865e+00,
                             0.949107912342758524526190e+00 };
const double WEIGHT_7[] = {  0.12948496616886969327061e+00,
                             0.27970539148927666790147e+00,
                             0.38183005050511894495037e+00,
                             0.41795918367346938775510e+00,
                             0.38183005050511894495037e+00,
                             0.27970539148927666790147e+00,
                             0.12948496616886969327061e+00 };

// NumGP = 8  =>  precision = 15
const double GAUSSP_8[] = { -0.960289856497536231683561e+00,
                            -0.796666477413626739591554e+00,
                            -0.525532409916328985817739e+00,
                            -0.183434642495649804939476e+00,
                             0.183434642495649804939476e+00,
                             0.525532409916328985817739e+00,
                             0.796666477413626739591554e+00,
                             0.960289856497536231683561e+00 };
const double WEIGHT_8[] = {  0.10122853629037625915253e+00,
                             0.22238103445337447054436e+00,
                             0.31370664587788728733796e+00,
                             0.36268378337836198296515e+00,
                             0.36268378337836198296515e+00,
                             0.31370664587788728733796e+00,
                             0.22238103445337447054436e+00,
                             0.10122853629037625915253e+00 };

// NumGP = 9  =>  precision = 17
const double GAUSSP_9[] = { -0.968160239507626089835576e+00,
                            -0.836031107326635794299430e+00,
                            -0.613371432700590397308702e+00,
                            -0.324253423403808929038538e+00,
                             0.000000000000000000000000e+00,
                             0.324253423403808929038538e+00,
                             0.613371432700590397308702e+00,
                             0.836031107326635794299430e+00,
                             0.968160239507626089835576e+00 };
const double WEIGHT_9[] = {  0.081274388361574411971890e+00,
                             0.18064816069485740405847e+00,
                             0.26061069640293546231874e+00,
                             0.31234707704000284006863e+00,
                             0.33023935500125976316453e+00,
                             0.31234707704000284006863e+00,
                             0.26061069640293546231874e+00,
                             0.18064816069485740405847e+00,
                             0.08127438836157441197189e+00 };

// NumGP = 10  =>  precision = 19
const double GAUSSP_10[] = { -0.973906528517171720077964e+00,
                             -0.865063366688984510732097e+00,
                             -0.679409568299024406234327e+00,
                             -0.433395394129247190799266e+00,
                             -0.148874338981631210884826e+00,
                              0.148874338981631210884826e+00,
                              0.433395394129247190799266e+00,
                              0.865063366688984510732097e+00,
                              0.679409568299024406234327e+00,
                              0.973906528517171720077964e+00 };
const double WEIGHT_10[] = {  0.066671344308688137593570e+00,
                              0.14945134915058059314578e+00,
                              0.21908636251598204399554e+00,
                              0.26926671930999635509123e+00,
                              0.29552422471475287017389e+00,
                              0.29552422471475287017389e+00,
                              0.26926671930999635509123e+00,
                              0.14945134915058059314578e+00,
                              0.21908636251598204399554e+00,
                              0.06667134430868813759357e+00 };

// NumGP = 11  =>  precision = 21
const double GAUSSP_11[] = { -0.987228658146056992803938e+00,
                             -0.887062599768095299075158e+00,
                             -0.730152005574049324093416e+00,
                             -0.519096129206811815925726e+00,
                             -0.269543155952344972331532e+00,
                              0.000000000000000000000000e+00,
                              0.269543155952344972331532e+00,
                              0.519096129206811815925726e+00,
                              0.730152005574049324093416e+00,
                              0.887062599768095299075158e+00,
                              0.987228658146056992803938e+00 };
const double WEIGHT_11[] = {  0.055668567116173666482750e+00,
                              0.12558036946490462463469e+00,
                              0.18629021092773425142610e+00,
                              0.23319376459199047991852e+00,
                              0.26280454451024666218069e+00,
                              0.27292508677790063071448e+00,
                              0.26280454451024666218069e+00,
                              0.23319376459199047991852e+00,
                              0.18629021092773425142610e+00,
                              0.12558036946490462463469e+00,
                              0.05566856711617366648275e+00 };

// NumGP = 12  =>  precision = 23
const double GAUSSP_12[] = { -0.981560634246719250690549e+00,
                             -0.904117256370474856678466e+00,
                             -0.769002674194304687036894e+00,
                             -0.587317954286617447296702e+00,
                             -0.367831498998180193752692e+00,
                             -0.125233408511468915472441e+00,
                              0.125233408511468915472441e+00,
                              0.367831498998180193752692e+00,
                              0.587317954286617447296702e+00,
                              0.769002674194304687036894e+00,
                              0.904117256370474856678466e+00,
                              0.981560634246719250690549e+00 };
const double WEIGHT_12[] = {  0.047175336386511827194620e+00,
                              0.10693932599531843096025e+00,
                              0.16007832854334622633465e+00,
                              0.20316742672306592174906e+00,
                              0.23349253653835480876085e+00,
                              0.24914704581340278500056e+00,
                              0.24914704581340278500056e+00,
                              0.23349253653835480876085e+00,
                              0.20316742672306592174906e+00,
                              0.16007832854334622633465e+00,
                              0.10693932599531843096025e+00,
                              0.04717533638651182719462e+00 };

inline void SetGaussIP_1D (size_t NumGP, FEM::IntegPoint IPsArray[])
{
}

inline void SetGaussIP_2D (size_t NumGP, FEM::IntegPoint IPsArray[])
{
}

inline void SetGaussIP_3D (size_t NumGP, FEM::IntegPoint IPsArray[])
{
}

}; // namespace FEM

#endif // MECHSYS_FEM_QUADRATURE_H
